svm_type c_svc
kernel_type rbf
gamma 0.00012207
nr_class 3
total_sv 55
rho -2.96831 4.56897 2.16867
label 1 3 2
nr_sv 10 5 40
SV
33.27523353159652 0 1:-58.971466 2:71.756218 3:-76.867249 4:85.431274 5:20.795547 6:-7.4812093 7:-4.0508728 8:1.9845104 9:12.754376 10:8.2295399 11:-10.159865 12:3.54742 13:1.6606611 14:-0.4120799 15:-0.42996541 16:-2.3536103 17:-0.96997947 18:-0.76004958 19:-0.48656943 20:0.31833965 21:2.9818199 22:1.3122718 
5.549082638183961 164.9815072083183 1:-42.734352 2:105.58321 3:-84.541618 4:108.99826 5:27.498257 6:-1.237115 7:-1.1273789 8:1.5358347 9:16.075729 10:10.705295 11:-12.758028 12:2.738647 13:-1.223246 14:3.7717152 15:-0.30442843 16:-3.2987974 17:0.39635953 18:-1.1513845 19:-0.26895896 20:1.1359837 21:0.17243886 22:0.4879466 
59.21448126104932 524.0321334094633 1:-34.776646 2:103.23261 3:-71.720215 4:106.26761 5:24.972427 6:-12.989642 7:-3.5680952 8:1.4981264 9:15.73637 10:11.911451 11:-13.544015 12:2.2921212 13:0.4146466 14:0.83194596 15:-1.2903531 16:-0.4839139 17:-1.7016364 18:-2.8560798 19:0.25980237 20:0.18103248 21:2.0907855 22:0.855748 
48.77462375772251 0 1:-40.993145 2:84.10424 3:-74.898094 4:90.173317 5:22.752592 6:-7.0214729 7:1.6855252 8:5.1420298 9:14.02078 10:11.685322 11:-12.578502 12:-1.3252974 13:-0.098368101 14:0.57361394 15:-0.56375188 16:0.44959953 17:-0.70859563 18:-1.6054164 19:-0.29749665 20:0.19066885 21:-0.39107504 22:1.5050976 
0.8651026855703379 0 1:-38.293919 2:89.253807 3:-68.9002 4:93.068275 5:22.278414 6:-3.9402153 7:0.31318653 8:2.2819715 9:14.717668 10:11.026445 11:-10.669673 12:3.4071274 13:2.0288472 14:1.2331728 15:-0.12960495 16:-1.6597611 17:-1.8410704 18:0.3552703 19:0.33581468 20:-0.15158898 21:2.7383323 22:0.84987164 
0 95.19997849147089 1:-35.321503 2:73.061256 3:-50.662899 4:74.866455 5:20.334188 6:1.0200981 7:-4.2434673 8:1.7931757 9:11.699869 10:8.0158987 11:-11.443875 12:1.6269727 13:0.58332533 14:2.5430622 15:-0.28670394 16:-1.8851333 17:0.21152517 18:0.68130255 19:-1.3515009 20:-0.1637661 21:1.3193274 22:0.33463183 
15.86482711082027 9.821179441241135 1:-16.600439 2:20.291418 3:7.4088464 4:21.424994 5:6.2944789 6:5.5247402 7:-0.36046427 8:-2.0591583 9:2.8670652 10:5.9953799 11:-0.1555756 12:2.8720672 13:2.1001649 14:-1.7727432 15:-0.3843092 16:0.8166914 17:-0.43611005 18:-0.57561058 19:0.013958846 20:-1.469417 21:1.0175519 22:1.4066452 
39.22976964790155 390.9336832762017 1:-16.530996 2:84.046432 3:-69.896736 4:85.720436 5:22.406557 6:-7.0401316 7:-5.0580902 8:2.6912589 9:8.8856812 10:7.102941 11:-8.933423 12:0.96292335 13:-1.1793022 14:-2.4008236 15:1.4503976 16:0.70335668 17:-0.68179941 18:-0.82678872 19:-0.23369148 20:0.46396554 21:0.64460623 22:2.5338256 
27.79400927642525 3.810270413196558 1:-27.550285 2:69.965843 3:-55.903709 4:64.848969 5:20.331429 6:-3.5647273 7:-4.4237056 8:4.0093279 9:8.2335052 10:7.4868426 11:-9.3448715 12:-1.0523582 13:0.3095147 14:0.86101061 15:-1.0034908 16:-2.6836851 17:-1.9165108 18:-1.7376312 19:0.14337617 20:1.131174 21:3.8328545 22:-0.75183553 
6.176491880906321 282.2813504788769 1:-31.181936 2:82.389572 3:-81.76825 4:84.444672 5:24.911411 6:-1.2009983 7:-2.915297 8:3.4492562 9:13.568851 10:10.806512 11:-10.906106 12:1.8096131 13:0.36830565 14:1.0764548 15:-0.55344433 16:-1.5847986 17:-0.83883393 18:-0.74565291 19:-0.56191069 20:-0.247721 21:1.1900357 22:1.0500046 
-120.1085564410572 24.91112543325092 1:-39.050842 2:84.600769 3:-71.061127 4:91.692261 5:21.23023 6:-7.0537896 7:-2.5779603 8:2.8775275 9:9.9231749 10:9.2017727 11:-10.766759 12:-0.72740382 13:1.1846857 14:2.2318292 15:-1.8166239 16:-2.9081967 17:0.93847662 18:-2.6486406 19:-3.479666 20:0.32628933 21:1.2608833 22:1.4136884 
-10.6482818915682 43.5682879647405 1:-30.169764 2:63.401814 3:-56.886547 4:74.587135 5:21.417608 6:-2.180017 7:-14.66395 8:-1.4885317 9:7.4184365 10:7.6422734 11:-7.8447785 12:0.31963575 13:-2.1099002 14:3.1704087 15:-2.0671401 16:-4.1779408 17:2.3223524 18:-1.6077791 19:-3.1863911 20:-1.5398319 21:0.92545354 22:0.99823391 
-17.90995483177064 4.935378843841881 1:-20.762077 2:15.080641 3:4.7833447 4:20.905716 5:0.77495897 6:-6.2705908 7:3.291575 8:-0.53006399 9:-2.8965824 10:-0.96261477 11:-0.57562727 12:-1.3599918 13:-0.035255689 14:-1.710562 15:-2.9117165 16:-4.2719445 17:1.5178698 18:-0.033766631 19:-1.1529765 20:-1.661581 21:1.6578453 22:1.2366009 
-63.10832183900017 93.50871564266356 1:-34.42767 2:99.525955 3:-82.153793 4:100.33846 5:22.946661 6:-14.815489 7:-4.7442808 8:2.9288754 9:14.387407 10:13.629383 11:-9.6613464 12:5.1846962 13:0.52760994 14:0.78167921 15:-1.9655637 16:-3.49119 17:0.15386073 18:0.70758587 19:0.018049657 20:-1.2227987 21:0.80654615 22:0.62003809 
-24.96850678677982 119.6658952549295 1:-21.643566 2:65.369476 3:-56.592907 4:66.92234 5:12.575912 6:-11.182107 7:-0.63510174 8:2.5842879 9:9.338994 10:5.692481 11:-8.4376688 12:-0.71123189 13:-0.8242808 14:1.9713839 15:-2.0323629 16:-2.6441271 17:0.5808503 18:-0.99137312 19:-1.0255527 20:-0.67675304 21:2.3997138 22:0.3788631 
-6.783227592325131 -0 1:-31.397291 2:104.12283 3:-78.685516 4:106.49813 5:30.266422 6:-10.420934 7:-5.1595664 8:4.9247899 9:14.016062 10:13.482564 11:-13.851539 12:2.2928977 13:2.2355363 14:2.4612381 15:1.9585264 16:-3.9931681 17:-0.88459891 18:-0.83735347 19:-2.3166602 20:1.9249738 21:-0.22739437 22:3.3776207 
-0 -10.29443351542961 1:-37.39875 2:109.88775 3:-82.133286 4:110.8214 5:30.75099 6:-12.270067 7:-8.1303034 8:4.1923027 9:15.578729 10:14.916525 11:-13.199596 12:1.340953 13:-2.3048375 14:-0.074147984 15:0.48826259 16:-1.4631363 17:-0.31856781 18:0.54187655 19:-1.8832765 20:-1.8055332 21:3.1925163 22:-0.96631026 
-64.1026188973209 -0 1:-38.806702 2:110.82448 3:-81.921104 4:111.25844 5:30.225838 6:-12.015386 7:-9.0983629 8:4.2287345 9:16.317299 10:13.739823 11:-12.978001 12:0.11504892 13:-2.4441266 14:-0.99086112 15:-1.6251074 16:0.27406761 17:-0.41176185 18:0.44433737 19:-0.47159639 20:-0.84705931 21:3.0060894 22:-0.0040403958 
-78.6440699274947 -0 1:-40.668179 2:109.53351 3:-76.719284 4:108.24696 5:27.888035 6:-10.626208 7:-10.771711 8:4.1992683 9:17.918463 10:10.822751 11:-12.909102 12:-1.8466587 13:-0.34108764 14:-0.02300619 15:-2.7654488 16:-0.93987936 17:-0.15365009 18:-2.2544262 19:2.2129595 20:-0.056061249 21:-0.15722251 22:3.0215335 
-31.36618668612218 -0 1:-41.969456 2:110.36199 3:-75.858803 4:108.46781 5:26.908434 6:-9.4419041 7:-10.546357 8:4.4366107 9:18.158796 10:10.343589 11:-13.936185 12:-0.7447589 13:1.1074268 14:2.1396806 15:-2.3915038 16:-3.0073206 17:-0.28334171 18:-2.6751497 19:1.0230213 20:-0.66860604 21:-0.3751373 22:2.5308967 
-0 -6.409350559268823 1:-43.99839 2:108.07636 3:-67.589966 4:103.60874 5:24.406507 6:-6.7601395 7:-9.1870708 8:4.2054391 9:16.843235 10:10.499778 11:-14.046524 12:2.4885678 13:2.4517653 14:4.8059602 15:-2.4142463 16:-3.9495099 17:-0.92377764 18:-0.33067697 19:-3.718751 20:-0.63438272 21:2.2503102 22:0.021290477 
-21.90280670616887 -0 1:-44.773716 2:103.28499 3:-56.664879 4:96.011452 5:22.415565 6:-5.3776317 7:-8.3576698 8:3.3378551 9:15.283003 10:10.132706 11:-12.265382 12:3.1074419 13:2.6575084 14:4.2263508 15:-1.9874754 16:-3.5575628 17:-1.0838283 18:0.32308277 19:-4.1910009 20:-0.50366592 21:3.1082501 22:-0.84854275 
-0 -4.535387013861406 1:-45.379089 2:95.240784 3:-38.960762 4:83.421356 5:19.121782 6:-3.9481893 7:-7.5156889 8:1.8428485 9:12.550896 10:8.6394739 11:-9.8768854 12:3.0766382 13:2.5561986 14:2.4477613 15:-1.089056 16:-3.3462908 17:-0.7229386 18:-0.031850796 19:-2.5692017 20:-0.25455055 21:3.2171683 22:-1.4083548 
-0 -8.246010387919798 1:-46.484764 2:80.557297 3:-5.6659484 4:57.903744 5:12.837878 6:-3.7308459 7:-2.463115 8:0.60882831 9:6.3524122 10:6.4304008 11:-6.302103 12:0.067474164 13:0.24157003 14:0.82489794 15:-0.61842114 16:-0.89327824 17:0.01582819 18:-0.68237239 19:-0.67261899 20:-0.052102912 21:0.86988288 22:0.66213411 
-17.06390605999184 -0 1:-46.057156 2:98.484451 3:-41.356098 4:84.853119 5:20.972185 6:-5.8078055 7:-2.9507039 8:1.5695333 9:10.63522 10:9.4876499 11:-10.008782 12:0.54875135 13:0.36495477 14:0.94702125 15:-1.1667849 16:-1.5305169 17:-0.25234389 18:-0.94736582 19:-0.93636781 20:0.097622916 21:1.2116567 22:0.33835596 
-78.6440699274947 -0 1:-45.91172 2:98.844757 3:-42.314442 4:85.552422 5:20.836344 6:-5.8077488 7:-3.1655879 8:2.2234473 9:10.401161 10:9.1007767 11:-10.753057 12:0.86310309 13:0.63939637 14:0.59033102 15:-0.68275893 16:-1.8809115 17:-0.43428889 18:-1.085701 19:-1.0366893 20:0.067580998 21:1.2088063 22:0.63011563 
-78.6440699274947 -0 1:-36.12326 2:107.23045 3:-78.655106 4:105.92135 5:26.671352 6:-4.4347558 7:4.9508986 8:2.5986321 9:11.233467 10:13.019838 11:-11.784251 12:1.090435 13:0.46681538 14:0.85625446 15:-0.15273613 16:-1.3047471 17:-0.64324325 18:1.1000572 19:-1.8915097 20:-0.94942337 21:2.9909813 22:-0.36506703 
-38.19871636099491 -13.70543585864394 1:-36.467888 2:110.14622 3:-84.141441 4:110.57255 5:27.750097 6:-5.7610059 7:2.072732 8:2.8144767 9:12.085093 10:14.01093 11:-11.803883 12:0.47429752 13:0.41105098 14:-0.33278582 15:-1.263236 16:-0.50929087 17:-0.021364432 18:0.16737609 19:-1.7636232 20:-0.67390752 21:1.9514645 22:0.30980906 
-50.18361551379214 -0 1:-33.358757 2:105.3285 3:-81.333603 4:105.9249 5:26.324293 6:-5.7684784 7:1.4862603 8:2.3483946 9:10.961917 10:13.587549 11:-10.674945 12:-0.36097926 13:0.1214918 14:-1.6965981 15:-1.5785511 16:0.02516227 17:1.1365483 18:-1.0061082 19:-1.0390779 20:-0.12199257 21:0.088376485 22:1.1181778 
-78.6440699274947 -0 1:-28.824049 2:98.114365 3:-77.076012 4:98.873672 5:24.100506 6:-5.8706656 7:0.252069 8:2.0350106 9:9.8868599 10:11.803056 11:-9.8501139 12:-0.69271934 13:-0.50200993 14:-2.1162558 15:-1.3338008 16:-0.43543792 17:2.2421918 18:-2.3872154 19:0.092501737 20:0.59306818 21:-1.5775664 22:2.046442 
-74.12068436615006 -0 1:-27.559896 2:97.215607 3:-78.212669 4:98.691399 5:23.881142 6:-6.3341374 7:-2.3724511 8:2.580122 9:10.939388 10:10.327778 11:-10.912896 12:0.074129298 13:-0.75231868 14:-0.47275651 15:-0.93771565 16:-1.8206935 17:1.7493953 18:-2.6959593 19:-0.20943506 20:0.76287216 21:-0.099239431 22:1.6574908 
-13.46189601830685 -0 1:-19.954826 2:85.011757 3:-69.247238 4:86.356285 5:21.533377 6:-4.7128482 7:-4.4538856 8:2.375283 9:11.327291 10:9.769248 11:-11.1204 12:0.29548317 13:-3.6716809 14:-0.796152 15:0.33169118 16:-4.8425207 17:-1.9333695 18:-1.0828645 19:-3.1946111 20:1.3510288 21:1.0419344 22:3.673456 
-57.70308544480802 -0 1:-19.151384 2:83.305573 3:-70.930695 4:85.912041 5:19.238646 6:-7.5262671 7:-3.5396535 8:1.4348071 9:14.119567 10:9.0815744 11:-10.750311 12:2.1558635 13:-0.67817324 14:1.6675675 15:0.77064276 16:-0.39191812 17:-0.90058297 18:-2.7267168 19:0.73262376 20:3.3321612 21:0.64763111 22:-0.78062463 
-78.6440699274947 -0 1:-26.014923 2:93.75782 3:-79.359383 4:97.996475 5:22.283829 6:-8.4364853 7:-3.5985339 8:1.807267 9:15.402777 10:10.464975 11:-12.57573 12:2.2638071 13:-0.37135664 14:2.3177159 15:0.62039113 16:-0.75090241 17:-1.8279948 18:-2.6414151 19:0.11978901 20:1.960574 21:0.92353582 22:0.012367282 
-78.6440699274947 -0 1:-26.475813 2:92.620277 3:-79.256897 4:98.072708 5:21.858971 6:-8.7203178 7:-3.1876884 8:1.3576887 9:15.27409 10:10.708728 11:-12.971815 12:2.182766 13:-0.021319827 14:2.5157342 15:0.56796288 16:-0.29843128 17:-2.9682977 18:-2.021754 19:-0.65317529 20:0.74542171 21:0.90826839 22:0.57710797 
-38.64200945066283 -0 1:-21.032505 2:78.616653 3:-70.538383 4:86.217529 5:17.602781 6:-8.5593252 7:-2.0771539 8:-0.51586968 9:13.853514 10:9.9147282 11:-12.286461 12:1.9770086 13:0.62115985 14:2.1801357 15:0.96738195 16:0.9647218 17:-4.4080768 18:-0.85413134 19:-1.2792147 20:0.27985075 21:0.27163035 22:0.45739493 
-11.20087547172739 -18.61817154873945 1:-27.430931 2:89.987946 3:-78.969643 4:98.330399 5:21.605288 6:-8.5756245 7:-2.948092 8:0.42782775 9:14.755539 10:11.073279 11:-13.769429 12:1.4275985 13:1.3818914 14:1.0993774 15:0.38981768 16:0.029941047 17:-3.126395 18:-0.050551865 19:-1.2556981 20:0.15250696 21:0.33607209 22:0.21620232 
-0 -3.180289762188773 1:-21.962984 2:75.116867 3:-70.096146 4:86.767899 5:17.788963 6:-8.0459776 7:-2.4780228 8:-1.1640054 9:13.152971 10:9.8590546 11:-13.657326 12:0.67566448 13:2.4327798 14:0.30200365 15:1.3120478 16:0.75279397 17:-2.1046033 18:0.93419045 19:-0.52700102 20:0.37936619 21:-0.42198595 22:-0.63002503 
-78.6440699274947 -0 1:-28.806887 2:84.460815 3:-76.857742 4:101.08343 5:25.531315 6:-5.2973738 7:-5.7675986 8:2.1562719 9:14.581701 10:11.093847 11:-14.039896 12:1.0956789 13:0.57350951 14:1.6851102 15:0.57507801 16:-0.62915742 17:0.40530667 18:-0.97122502 19:-1.1578975 20:-0.62757903 21:1.6989117 22:1.8756766 
-0 -17.0196703367154 1:-12.347317 2:39.764389 3:-47.197601 4:69.92569 5:18.86627 6:0.17410789 7:-7.3443494 8:-0.54987514 9:9.7813892 10:7.7707753 11:-11.417395 12:-0.23014806 13:0.0085118497 14:1.5256001 15:1.3266456 16:0.58079958 17:0.62778538 18:-0.51599711 19:-1.193729 20:-1.4190146 21:1.991972 22:1.7767929 
-61.21193992860262 -0 1:-28.277931 2:84.939209 3:-75.270882 4:102.7373 5:26.846933 6:-4.0031543 7:-6.5638251 8:2.471374 9:14.44145 10:11.024916 11:-13.65376 12:0.67928785 13:0.23344636 14:1.0282823 15:-0.555646 16:-1.2909888 17:-0.52401364 18:-0.54593855 19:-1.5752702 20:-0.55067897 21:1.6802227 22:1.5513901 
-53.47194880706573 -0 1:-20.123663 2:72.448975 3:-62.937923 4:95.024925 5:23.0958 6:-4.1192098 7:-2.9136696 8:3.8952644 9:15.195128 10:9.9083633 11:-10.047124 12:3.8901517 13:0.12878883 14:0.6580804 15:-1.1018444 16:-1.6644454 17:-0.4205406 18:-1.1490095 19:-0.086203448 20:0.088912636 21:2.6343062 22:0.78508627 
-6.968436561574335 -0 1:-19.873095 2:87.193115 3:-69.960594 4:89.791779 5:21.913363 6:-4.0744023 7:-5.3465905 8:-1.7806151 9:15.010629 10:11.070663 11:-13.457417 12:0.65299857 13:-1.6846519 14:4.8115048 15:1.6156584 16:1.1182879 17:-3.3331094 18:-4.4591117 19:-1.4330703 20:1.1552074 21:1.1882309 22:-0.49457815 
-34.84477992881259 -0 1:-19.404245 2:87.118324 3:-69.544991 4:90.648628 5:21.800598 6:-3.8779674 7:-5.6221604 8:-1.7821932 9:14.057167 10:10.43797 11:-13.461049 12:0.40712991 13:0.20663349 14:2.5295179 15:-0.28370959 16:1.3180212 17:-6.1561952 18:-1.0084066 19:-3.1184008 20:-2.8427212 21:0.16313736 22:1.5057379 
-9.277106254337276 -0 1:-17.67951 2:86.07103 3:-67.914894 4:92.441025 5:23.025227 6:-5.064455 7:-2.6970987 8:4.5457296 9:14.161917 10:9.2211151 11:-12.688194 12:4.5740418 13:0.69938666 14:3.3080232 15:2.4038224 16:-0.60560846 17:8.0415516 18:-3.7447956 19:2.7322326 20:1.9126698 21:4.5293016 22:0.57989663 
-72.79449069743772 -0 1:-10.482383 2:60.923111 3:-58.943485 4:57.973763 5:18.79179 6:2.8239722 7:-4.6775694 8:1.3508836 9:12.045994 10:6.3951006 11:-7.686758 12:2.32795 13:-2.9075449 14:-2.5342596 15:1.0516484 16:-3.6436498 17:0.19267108 18:-1.3999686 19:-2.5241992 20:0.0051005855 21:0.80054134 22:3.4332685 
-61.2641951635575 -0 1:-21.914928 2:77.113251 3:-80.652069 4:73.625359 5:21.762518 6:-10.71092 7:-4.3394866 8:3.3417382 9:14.531846 10:9.0888214 11:-9.0734301 12:5.2267623 13:1.9237067 14:0.94703865 15:-1.2194009 16:-1.8759899 17:-0.81825221 18:-2.0978713 19:0.0087177344 20:0.19824557 21:0.4137733 22:-0.083860263 
-28.90554547681614 -0 1:-28.503016 2:90.197067 3:-87.09597 4:88.796303 5:24.026459 6:-10.755948 7:-3.7212627 8:3.6524954 9:15.865098 10:9.7959013 11:-11.170832 12:3.8321528 13:1.4669362 14:1.297805 15:-0.72242755 16:-1.4281543 17:-0.95640159 18:-1.7005547 19:-1.3608408 20:-0.11363747 21:2.0393136 22:0.54444385 
-9.795401984741503 -10.8130742296967 1:-28.578682 2:76.093781 3:-82.92041 4:73.468903 5:19.985767 6:-7.670095 7:-3.6381998 8:3.6230931 9:11.145027 10:10.131776 11:-11.975485 12:-0.4607408 13:0.40142688 14:1.2609743 15:-0.43822357 16:-1.9798458 17:0.29891995 18:0.26496059 19:-1.0013425 20:-0.10096837 21:0.0091861347 22:0.12179367 
-0 -11.41076304831943 1:-22.844931 2:49.319416 3:-71.58503 4:42.942169 5:14.299684 6:-4.3089261 7:-3.0756454 8:2.9190207 9:9.9410715 10:5.0330935 11:-7.0378194 12:2.2606432 13:0.53216457 14:0.67892826 15:-0.59534717 16:-2.4539797 17:-0.24863945 18:-0.43705305 19:0.028928436 20:-0.14019386 21:1.1052508 22:0.94106382 
-0 -6.362428598766445 1:-16.229153 2:65.909439 3:-55.723984 4:65.914803 5:16.433372 6:-13.019117 7:-4.8275642 8:4.1258435 9:8.6803036 10:8.2178926 11:-8.3141251 12:0.91205019 13:1.0782599 14:-0.0049621454 15:-1.7085454 16:-1.7486638 17:-0.3681629 18:0.28117859 19:-1.2535254 20:-1.2312527 21:0.96364218 22:0.78483331 
-0 -78.6440699274947 1:-18.430487 2:65.874748 3:-55.599529 4:65.339813 5:17.157501 6:-12.494183 7:-5.4509516 8:4.00913 9:8.7747669 10:7.3831019 11:-8.6188412 12:0.11583813 13:0.887923 14:-0.24373785 15:-1.6357872 16:-1.7679648 17:0.83851874 18:-0.36903632 19:-1.1550008 20:-0.74249321 21:1.3036863 22:0.14658399 
-78.6440699274947 -16.79441592659132 1:-29.743902 2:87.174904 3:-72.014305 4:87.854546 5:23.219919 6:-10.111754 7:-5.6992989 8:4.2937503 9:12.633939 10:8.380784 11:-11.47811 12:0.092040442 13:-0.015518735 14:1.4048382 15:-1.584594 16:-2.3202338 17:0.72957569 18:-1.0678318 19:-1.2245262 20:-0.30234194 21:1.4139614 22:0.86436868 
-78.6440699274947 -78.6440699274947 1:-30.904951 2:87.256195 3:-72.261238 4:87.649635 5:23.309725 6:-9.4101076 7:-4.9594717 8:4.3146544 9:12.98299 10:8.0777178 11:-11.2517 12:0.51792896 13:-0.14759772 14:1.7294177 15:-1.7560624 16:-2.4814651 17:0.13496628 18:-1.1583456 19:-1.4418184 20:-0.43023038 21:1.0218709 22:1.164283 
-0 -1.911832498295881 1:-5.7153916 2:3.6967626 3:-7.445641 4:-5.4621444 5:3.1376472 6:-6.8550968 7:-2.9573555 8:2.6951697 9:1.688525 10:-4.1813917 11:-0.15619807 12:-1.4604125 13:-1.6872004 14:2.4449921 15:-2.1887059 16:-3.6583614 17:-0.26332253 18:-0.50339586 19:-1.7084548 20:-1.4450392 21:-0.25019652 22:2.0135934 
